/*!
 * The following copyright notice may not be removed under any circumstances.
 * 
 * Copyright:
 * Generated in 2009 by FontLab Studio. Copyright info pending.
 */
Cufon.registerFont({"w":386,"face":{"font-family":"ChunkFive","font-weight":400,"font-stretch":"normal","units-per-em":"1000","panose-1":"0 0 0 0 0 0 0 0 0 0","ascent":"750","descent":"-250","x-height":"13","bbox":"-10 -815 1025 230","underline-thickness":"50","underline-position":"-50","unicode-range":"U+0020-U+2022"},"glyphs":{" ":{"w":250},"!":{"d":"142,1v-59,0,-115,-48,-114,-103v0,-57,52,-106,114,-106v64,0,120,45,119,106v0,60,-54,103,-119,103xm86,-257r-54,-252r0,-190r239,0r0,190r-53,252r-132,0","w":308},"'":{"d":"36,-701r198,0r-36,299r-125,0","w":273},"(":{"d":"260,209v-146,-131,-294,-410,-210,-687v43,-141,120,-252,210,-337r103,106v-82,99,-154,213,-154,397v0,190,67,314,154,414","w":388},")":{"d":"179,-311v0,-183,-72,-299,-154,-397r103,-106v118,113,231,275,235,503v4,216,-120,417,-235,521r-103,-107v87,-100,154,-224,154,-414","w":388},",":{"d":"-6,129v70,-92,104,-168,95,-325r182,48v2,150,-73,263,-162,342","w":272},"-":{"d":"47,-172r0,-133r290,0r0,133r-290,0"},".":{"d":"128,4v-60,0,-113,-51,-113,-108v0,-57,50,-114,113,-114v63,0,115,57,115,114v0,64,-47,108,-115,108","w":258},"0":{"d":"584,-346v0,207,-89,358,-282,358v-192,0,-287,-151,-287,-365v0,-193,104,-358,282,-359v202,0,287,154,287,366xm241,-202v36,76,87,79,119,2v30,-71,30,-222,-2,-293v-33,-73,-82,-80,-118,-3v-34,74,-33,222,1,294","w":599},"1":{"d":"71,-457r-46,-111v72,-31,130,-74,175,-131r178,0r0,566r93,0r0,133r-400,0r0,-133r100,0r0,-371","w":496},"2":{"d":"293,-710v132,0,238,88,238,219v0,53,-12,95,-35,123v-53,68,-223,148,-275,235r176,0r0,-80r168,0r0,213r-540,0r0,-145v66,-112,113,-151,219,-225v33,-23,60,-41,78,-58v51,-46,27,-120,-58,-120v-32,0,-73,26,-88,40r-35,36r-108,-114v71,-83,158,-124,260,-124","w":590},"3":{"d":"525,-207v0,186,-247,273,-413,186v-45,-23,-77,-49,-97,-79r102,-106v43,43,87,65,132,65v53,0,90,-26,90,-77v0,-49,-28,-73,-83,-73r-75,0r0,-119r73,0v46,0,85,-24,85,-69v0,-49,-42,-79,-88,-79v-40,0,-79,20,-117,60r-97,-117v39,-43,131,-95,214,-95v149,0,254,74,255,212v0,47,-25,89,-74,127v62,45,93,99,93,164","w":540},"4":{"d":"10,-197r0,-143r288,-359r207,0r0,394r53,0r0,108r-53,0r0,65r54,0r0,132r-324,0r0,-132r63,0r0,-65r-288,0xm150,-305r148,0r0,-185","w":584},"5":{"d":"329,-477v128,0,237,99,233,237v-4,132,-86,204,-190,236v-89,28,-175,21,-254,-20v-48,-24,-82,-52,-103,-84r109,-113v48,49,95,74,140,74v63,1,110,-40,110,-100v0,-53,-47,-97,-102,-97v-33,0,-65,15,-94,46r-128,-57r61,-344r396,0r0,149r-269,0r-17,97v25,-16,61,-24,108,-24","w":577},"6":{"d":"546,-631r-68,130v-58,-34,-107,-51,-146,-51v-76,1,-122,65,-131,136v25,-26,81,-49,131,-51v129,-6,234,94,234,223v0,144,-111,250,-259,253v-176,3,-289,-131,-291,-313v-1,-120,25,-225,76,-298v40,-58,120,-106,218,-108v79,-2,192,38,236,79xm296,-148v48,0,94,-38,91,-86v-2,-47,-28,-93,-81,-89v-39,2,-74,21,-103,57v0,55,35,118,93,118","w":581},"7":{"d":"15,-501r0,-198r541,0r0,133r-269,566r-216,0r268,-566r-164,0r0,65r-160,0","w":566},"8":{"d":"280,13v-148,0,-265,-82,-265,-218v0,-74,52,-151,108,-176v-42,-24,-75,-74,-75,-133v0,-123,104,-197,238,-197v137,0,237,73,239,197v1,65,-39,115,-84,136v59,27,103,95,103,173v0,133,-119,218,-264,218xm246,-300v-27,16,-58,50,-58,89v-1,47,45,82,93,82v51,0,91,-31,92,-82v1,-63,-68,-86,-127,-89xm284,-585v-36,0,-74,29,-72,63v2,48,48,65,99,66v32,-15,48,-37,48,-66v1,-36,-38,-63,-75,-63","w":559},"9":{"d":"35,-70r68,-130v58,34,107,51,146,51v77,0,124,-53,122,-136v-72,74,-213,61,-288,-9v-91,-86,-87,-253,2,-340v48,-47,110,-73,189,-76v176,-6,294,132,297,313v2,126,-25,231,-79,304v-42,56,-123,100,-221,102v-79,2,-192,-38,-236,-79xm285,-553v-48,0,-94,38,-91,86v2,47,28,93,81,89v33,-1,65,-20,94,-57v0,-58,-25,-118,-84,-118","w":587},":":{"d":"126,8v-59,0,-111,-51,-111,-106v0,-57,49,-112,111,-112v63,0,113,55,113,112v1,61,-50,106,-113,106xm126,-296v-56,0,-111,-53,-111,-106v0,-57,49,-112,111,-112v63,0,113,55,113,112v0,63,-47,106,-113,106","w":254},";":{"d":"172,-277v-57,0,-113,-53,-113,-108v0,-57,50,-114,113,-114v63,0,115,57,115,114v0,63,-48,108,-115,108xm100,-196v9,157,-25,233,-95,325r115,65v90,-80,163,-191,162,-342","w":302},"=":{"d":"44,-172r0,-133r412,0r0,133r-412,0xm44,-393r0,-133r412,0r0,133r-412,0","w":502},"?":{"d":"240,-559v-52,2,-100,47,-130,82r-108,-109v74,-86,161,-129,260,-129v133,-1,240,73,238,205v-2,103,-88,138,-142,189v-23,22,-15,50,-17,88r-185,0v1,-59,-8,-104,24,-142v33,-39,73,-62,109,-95v45,-41,27,-92,-49,-89xm243,1v-59,0,-115,-48,-114,-103v0,-57,52,-106,114,-106v64,0,120,45,119,106v0,60,-54,103,-119,103","w":520},"A":{"d":"808,-131r0,131r-401,0r0,-131r95,0r-21,-68r-205,0r-21,68r78,0r0,131r-318,0r0,-131r68,0r135,-439r-41,0r0,-129r384,0r177,568r70,0xm378,-535r-65,216r131,0","w":823},"B":{"d":"677,-203v-3,158,-98,202,-272,203r-380,0r0,-130r58,0r0,-440r-58,0r0,-129r373,0v163,0,245,57,245,171v0,93,-28,126,-98,155v75,21,134,75,132,170xm451,-216v0,-52,-31,-89,-84,-88r-77,0r0,174r80,0v45,0,81,-37,81,-86xm419,-494v1,-43,-26,-73,-66,-73r-63,0r0,150r61,0v51,0,67,-26,68,-77","w":687},"C":{"d":"249,-343v0,107,64,211,177,184v59,-14,94,-54,128,-94r117,128v-85,94,-186,141,-303,141v-213,0,-356,-143,-353,-359v2,-168,87,-285,201,-342v91,-46,207,-29,257,42r23,-56r157,0r0,284r-179,0v-2,-67,-37,-127,-106,-126v-81,2,-119,104,-119,198","w":686},"D":{"d":"710,-359v1,232,-146,359,-384,359r-301,0r0,-133r62,0r0,-434r-62,0r0,-132r305,0v221,-5,380,134,380,340xm330,-133v110,-2,150,-106,150,-226v0,-108,-45,-209,-150,-208r-38,0r0,434r38,0","w":720},"E":{"d":"25,-567r0,-132r603,0r0,221r-173,0r0,-89r-160,0r0,138r190,0r0,133r-190,0r0,163r160,0r0,-93r173,0r0,226r-603,0r0,-133r63,0r0,-434r-63,0","w":653},"F":{"d":"25,-567r0,-132r598,0r0,221r-177,0r0,-89r-151,0r0,174r190,0r0,133r-190,0r0,127r102,0r0,133r-372,0r0,-133r62,0r0,-434r-62,0","w":638},"G":{"d":"257,-343v0,95,47,184,137,184v45,0,77,-16,96,-49r0,-42r-61,0r0,-107r332,0r0,107r-40,0r0,250r-200,0r-31,-63v-24,41,-92,72,-161,72v-185,0,-314,-155,-314,-352v0,-105,31,-193,93,-263v62,-70,133,-105,214,-105v93,-1,158,31,195,84r21,-72r149,0r0,295r-179,0v0,-71,-48,-126,-114,-127v-84,-1,-137,97,-137,188","w":776},"H":{"d":"25,-567r0,-132r324,0r0,132r-62,0r0,151r190,0r0,-151r-59,0r0,-132r325,0r0,132r-58,0r0,435r58,0r0,132r-325,0r0,-132r59,0r0,-151r-190,0r0,151r62,0r0,132r-324,0r0,-132r55,0r0,-435r-55,0","w":768},"I":{"d":"25,-567r0,-132r332,0r0,132r-62,0r0,434r62,0r0,133r-332,0r0,-133r63,0r0,-434r-63,0","w":382},"J":{"d":"355,-74v-2,189,-86,279,-282,278v-17,0,-34,-4,-52,-11r-1,-132v83,30,128,-17,128,-135r0,-494r-86,0r0,-131r376,0r0,131r-83,0r0,494","w":463},"K":{"d":"340,-699r0,129r-54,0r0,163r186,-163r-72,0r0,-129r333,0r0,129r-58,0r-145,125r202,315r58,0r0,130r-390,0r0,-130r68,0r-108,-170r-74,63r0,107r54,0r0,130r-315,0r0,-130r54,0r0,-440r-54,0r0,-129r315,0","w":815},"L":{"d":"25,-567r0,-132r316,0r0,132r-53,0r0,434r129,0r0,-127r168,0r0,260r-560,0r0,-133r55,0r0,-434r-55,0","w":610},"M":{"d":"723,-523r-4,0v-11,62,-21,107,-29,134r-105,389r-209,0r-112,-399v-11,-39,-18,-80,-21,-124r-4,0r0,394r57,0r0,129r-271,0r0,-129r54,0r0,-441r-53,0r0,-129r379,0r101,374r96,-374r381,0r0,129r-55,0r0,440r55,0r0,130r-316,0r0,-130r57,0","w":1008},"N":{"d":"791,-699r0,129r-66,0r0,570r-215,0r-255,-381r0,252r77,0r0,129r-307,0r0,-129r59,0r0,-441r-58,0r0,-129r287,0r246,367r-1,-238r-68,0r0,-129r301,0","w":816},"O":{"d":"725,-346v1,225,-128,365,-352,364v-223,-1,-358,-138,-358,-371v0,-209,145,-365,351,-365v236,0,358,140,359,372xm293,-198v39,74,118,79,155,2v35,-72,35,-236,0,-308v-19,-40,-46,-60,-83,-60v-31,0,-55,19,-75,58v-38,75,-35,236,3,308","w":740},"P":{"d":"625,-485v0,133,-125,199,-263,198r-76,0r0,155r61,0r0,132r-322,0r0,-132r56,0r0,-436r-56,0r0,-131r324,0v170,-1,276,51,276,214xm429,-478v0,-58,-35,-91,-93,-91r-50,0r0,174r45,0v55,1,98,-29,98,-83","w":640},"Q":{"d":"590,105v-81,0,-133,-51,-155,-111v-253,37,-420,-101,-420,-348v0,-200,137,-348,336,-348v226,0,342,133,342,355v0,106,-28,189,-83,250v11,43,26,65,44,65v21,0,21,-45,20,-74r66,0r0,51v0,92,-55,160,-150,160xm239,-299v58,-61,160,-64,230,-9v7,-75,-4,-138,-31,-188v-42,-77,-123,-81,-168,-2v-28,50,-42,127,-31,199xm410,-172v-8,-45,-12,-84,-53,-84v-27,0,-50,24,-67,73v34,38,81,45,120,11","w":755},"R":{"d":"581,12v-126,0,-192,-64,-194,-186v-1,-93,-8,-111,-100,-113r0,155r61,0r0,132r-323,0r0,-132r56,0r0,-436r-56,0r0,-131r325,0v168,0,278,44,277,206v0,82,-68,136,-145,145v65,8,132,70,131,142v0,45,8,68,24,68v27,0,23,-37,23,-65r67,0r0,55v-1,95,-46,160,-146,160xm332,-399v56,0,96,-27,96,-81v0,-59,-30,-89,-91,-89r-50,0r0,170r45,0","w":737},"S":{"d":"358,-564v-31,0,-71,21,-69,53v0,19,14,35,41,49v130,66,355,76,355,265v0,149,-118,212,-265,212v-87,0,-157,-31,-209,-92r-11,77r-175,0r0,-252r186,0v0,73,59,100,126,100v57,0,85,-17,85,-50v0,-12,-9,-23,-28,-32v-47,-23,-108,-31,-164,-52v-97,-37,-192,-87,-192,-216v0,-111,74,-174,159,-202v27,-9,53,-13,79,-13v103,0,173,34,209,102r10,-84r172,0r0,251r-181,0v1,-72,-57,-117,-128,-116","w":710},"T":{"d":"15,-699r671,0r0,260r-147,0r0,-128r-84,0r0,434r83,0r0,133r-372,0r0,-133r82,0r0,-434r-86,0r0,128r-147,0r0,-260","w":701},"U":{"d":"15,-569r0,-130r318,0r0,129r-54,0v3,116,-14,303,24,370v15,27,41,41,76,41v57,0,72,-17,87,-69v24,-81,11,-232,14,-339r-54,0r0,-132r296,0r0,129r-54,0r0,243v0,229,-96,344,-287,344v-207,0,-310,-119,-310,-339r0,-247r-56,0","w":737},"V":{"d":"420,-224r5,0v2,-30,13,-73,36,-127r91,-218r-52,0r-1,-130r284,0r0,130r-49,0r-240,569r-184,0r-265,-569r-55,0r0,-130r369,0r-1,130r-54,0v35,99,101,243,116,345","w":773},"W":{"d":"320,-226r5,0v4,-40,75,-370,99,-473r208,0v34,158,76,296,93,473r5,0v9,-108,41,-239,64,-343r-55,0r0,-130r286,0r0,130r-55,0r-149,569r-237,0r-60,-238v-9,-32,-17,-73,-25,-124r-4,0v-17,116,-58,249,-85,362r-232,0r-132,-569r-56,0r0,-130r330,0r0,130r-58,0r26,146v9,40,20,106,32,197","w":1015},"X":{"d":"357,-129r0,129r-332,0r0,-129r87,0r147,-191r-181,-249r-52,0r0,-130r396,0r0,130r-58,0r98,133r102,-133r-88,0r0,-130r332,0r0,130r-85,0r-151,193r180,246r58,0r0,130r-399,0r0,-130r57,0r-97,-130r-103,131r89,0","w":835},"Y":{"d":"369,-384r4,0v1,-6,10,-36,37,-86r55,-101r-55,0r0,-128r269,0r0,128r-54,0r-185,325r0,116r56,0r0,130r-320,0r0,-130r57,0r0,-118r-194,-323r-49,0r0,-128r342,0r0,128r-52,0v32,58,68,118,89,187","w":669},"Z":{"d":"201,-436r-170,0r0,-263r656,0r2,133r-366,434r185,0r1,-128r177,0r0,260r-661,0r0,-130r364,-437r-189,1","w":714},"[":{"d":"353,-700v172,0,277,61,276,228v0,70,-36,125,-108,165r112,177r58,0r0,130r-192,0r-166,-268r-43,0r0,136r61,0r0,132r-322,0r0,-132r56,0r0,-436r-56,0r0,-132r324,0xm433,-478v0,-58,-35,-91,-93,-91r-50,0r0,174r45,0v55,1,98,-29,98,-83","w":720},"]":{"d":"331,0r-301,0r0,-130r41,0r0,-489r-41,0r0,-131r231,0r0,452r116,-69r-72,0r0,-133r280,0r0,133r-77,0r-63,37r139,199r41,0r0,131r-162,0r-168,-239r-35,24r0,84r71,0r0,131","w":647},"a":{"d":"223,-332v40,0,81,16,99,35v6,-68,-14,-89,-95,-91v-44,0,-94,15,-149,46r-42,-116v111,-64,187,-87,312,-61v97,20,177,78,177,196r0,195r60,0r0,128r-214,0r-24,-45v-26,39,-79,63,-135,64v-103,1,-197,-60,-197,-167v0,-111,97,-186,208,-184xm205,-158v0,28,24,47,53,47v27,0,54,-16,64,-33r0,-38v-11,-19,-31,-29,-59,-29v-39,0,-58,18,-58,53","w":600},"b":{"d":"403,11v-63,-1,-100,-14,-132,-45r-15,34r-225,0r0,-130r42,0r0,-489r-42,0r0,-131r242,0r0,289v20,-25,85,-47,131,-47v143,0,232,122,230,262v-2,148,-86,258,-231,257xm343,-119v51,0,71,-63,71,-125v0,-54,-24,-123,-72,-123v-49,0,-71,66,-71,128v0,55,27,120,72,120","w":656},"c":{"d":"1,-253v0,-157,101,-255,246,-256v51,0,93,19,125,57r17,-48r118,0r0,226r-147,0v-3,-49,-16,-104,-63,-105v-89,-1,-114,150,-60,211v53,59,146,38,196,-22r88,102v-49,54,-142,102,-245,102v-157,0,-275,-103,-275,-267","w":531},"d":{"d":"10,-255v0,-141,100,-256,232,-255v44,0,86,13,126,38r0,-148r-46,0r0,-130r249,0r0,620r48,0r0,130r-234,0r-17,-37v-33,31,-75,46,-126,46v-137,0,-232,-127,-232,-264xm296,-380v-51,0,-71,63,-71,125v0,54,24,123,72,123v49,0,71,-66,71,-128v0,-55,-27,-120,-72,-120","w":634},"e":{"d":"200,-200v9,51,40,82,103,82v55,0,101,-16,140,-48r84,97v-109,97,-325,126,-443,18v-52,-47,-79,-113,-79,-202v0,-157,115,-261,269,-261v115,0,211,60,239,145v16,49,20,112,2,169r-315,0xm354,-299v-3,-50,-18,-80,-74,-80v-50,0,-73,40,-77,80r151,0","w":542},"f":{"d":"66,-585v1,-122,72,-182,198,-183v45,-1,119,11,147,25r-60,115v-15,-7,-33,-10,-55,-10v-45,-1,-29,90,-32,138r91,0r0,130r-91,0r0,239r60,0r0,131r-298,0r0,-131r40,0r0,-239r-41,0r0,-130r41,0r0,-85"},"g":{"d":"565,-70v-1,181,-120,275,-312,275v-96,0,-179,-43,-229,-88r53,-111v31,27,112,64,174,64v84,0,124,-43,116,-128v-29,37,-68,55,-117,55v-154,0,-239,-107,-240,-250v-1,-158,91,-257,251,-257v41,0,86,21,106,41r20,-31r238,0r0,131r-60,0r0,299xm294,-380v-51,0,-71,63,-71,125v0,54,24,123,72,123v49,0,71,-66,71,-128v0,-55,-27,-120,-72,-120","w":640},"h":{"d":"389,-272v1,-51,-8,-93,-59,-93v-42,0,-63,31,-63,93r0,141r72,0r0,131r-314,0r0,-131r42,0r0,-489r-42,0r0,-130r242,0r0,312v17,-28,103,-80,157,-80v72,0,121,26,146,72v41,77,25,201,29,315r47,0r0,131r-257,0r0,-272","w":661},"i":{"d":"305,-131r0,131r-280,0r0,-131r42,0r0,-239r-42,0r0,-130r232,0r0,369r48,0xm161,-545v-55,0,-109,-50,-108,-101v0,-53,48,-102,108,-102v60,0,110,49,110,102v0,59,-46,101,-110,101","w":330},"j":{"d":"128,-36r0,-334r-42,0r0,-130r232,0r0,430v2,193,-107,280,-304,279r0,-134v59,-3,96,-25,107,-75v4,-16,7,-28,7,-36xm222,-545v-55,0,-109,-50,-108,-101v0,-53,48,-102,108,-102v60,0,110,49,110,102v0,59,-46,101,-110,101","w":360},"k":{"d":"305,0r-267,0r0,-130r41,0r0,-489r-41,0r0,-131r231,0r0,452r116,-69r-72,0r0,-132r280,0r0,132r-77,0r-68,43r135,193r50,0r0,131r-296,0r0,-131r42,0r-76,-108r-35,24r0,84r37,0r0,131","w":654},"l":{"d":"317,-131r0,131r-292,0r0,-131r43,0r0,-490r-42,0r0,-129r232,0r0,619r59,0","w":332},"m":{"d":"601,-369v-43,0,-52,28,-53,73r0,162r60,0r0,134r-259,0r0,-255v0,-45,-2,-75,-7,-91v-5,-16,-16,-23,-35,-23v-30,0,-45,20,-45,60r0,178r60,0r0,131r-297,0r0,-131r42,0r0,-236r-42,0r0,-132r189,0r22,59v41,-49,82,-73,125,-73v75,-1,122,27,149,72v43,-48,92,-72,147,-72v76,0,128,27,155,75v41,73,30,190,32,303r49,0r0,135r-254,0r1,-291v-2,-36,-2,-78,-39,-78","w":908},"n":{"d":"333,-131r0,131r-308,0r0,-131r42,0r0,-239r-42,0r0,-130r213,0r23,62v52,-75,131,-98,221,-67v78,27,103,104,103,207r0,167r47,0r0,131r-252,0r0,-296v0,-9,-4,-44,-10,-48v-8,-10,-25,-22,-46,-22v-42,0,-63,31,-63,93r0,142r72,0","w":647},"o":{"d":"290,13v-155,0,-279,-102,-279,-265v0,-153,127,-261,274,-260v160,1,278,103,278,264v0,159,-118,261,-273,261xm216,-251v0,66,22,136,74,136v50,0,68,-71,68,-133v0,-65,-20,-134,-73,-134v-47,0,-69,73,-69,131","w":574},"p":{"d":"342,-119v51,0,71,-63,71,-125v0,-54,-24,-123,-72,-123v-49,0,-71,66,-71,128v0,55,27,120,72,120xm628,-246v0,146,-91,257,-228,257v-56,0,-99,-13,-130,-39r0,101r54,0r0,131r-299,0r0,-131r42,0r0,-440r-42,0r0,-133r229,0r17,35v39,-29,79,-43,121,-43v148,-3,236,116,236,262","w":638},"q":{"d":"312,-132v51,0,71,-63,71,-125v0,-54,-24,-123,-72,-123v-49,0,-71,66,-71,128v0,55,27,120,72,120xm264,-510v47,-1,101,19,119,40r19,-30r233,0r0,130r-49,0r0,466r49,0r0,134r-317,0r0,-131r65,0r0,-132v-34,28,-77,42,-128,42v-136,1,-230,-116,-230,-262v0,-157,93,-255,239,-257","w":660},"r":{"d":"399,-345v-92,1,-140,22,-141,111r0,103r50,0r0,131r-283,0r0,-131r44,0r0,-239r-43,0r0,-130r188,0r30,64v28,-56,68,-91,155,-89r0,180","w":414},"s":{"d":"302,12v-66,0,-129,-32,-153,-73r-9,61r-125,0r0,-180r134,0v3,46,57,65,106,67v36,1,56,-27,36,-49v-36,-22,-98,-29,-139,-45v-89,-31,-133,-85,-133,-160v0,-90,93,-145,176,-145v65,0,129,35,149,78r8,-66r123,0r0,180r-130,0v1,-43,-56,-76,-102,-76v-32,0,-49,27,-33,50v41,32,129,47,176,70v29,14,75,41,89,74v8,19,13,39,13,64v2,93,-92,150,-186,150","w":508},"t":{"d":"348,-1v-47,16,-144,29,-194,9v-40,-15,-60,-29,-72,-72v-23,-83,-10,-201,-13,-306r-54,0r0,-130r54,0r0,-92r184,-59r0,151r95,0r0,130r-95,0r0,178v-1,35,-6,81,32,80v15,0,36,-6,63,-17r0,128","w":363},"u":{"d":"258,14v-157,-2,-199,-81,-201,-244r0,-138r-42,0r0,-132r242,0r0,241v0,44,4,76,12,96v8,20,22,30,42,30v38,0,63,-36,63,-76r0,-159r-66,0r0,-132r259,0r0,367r49,0r0,133r-189,0r-27,-63r-24,27v-28,29,-61,50,-118,50","w":631},"v":{"d":"326,-162r4,0v3,-68,52,-153,78,-211r-53,0r0,-127r258,0r0,127r-52,0r-173,373r-155,0r-186,-373r-47,0r0,-127r304,0r0,127r-50,0r46,106v15,43,23,78,26,105","w":613},"w":{"d":"282,-153r2,0v9,-135,41,-238,73,-347r185,0v32,114,67,207,81,347r2,0v8,-91,23,-148,44,-217r-41,0r0,-130r244,0r0,130r-41,0r-117,370r-211,0r-69,-226r-72,226r-206,0r-113,-370r-43,0r0,-130r269,0r0,130r-34,0v21,66,43,137,47,217","w":872},"x":{"d":"375,-375r0,-125r255,0r0,125r-66,0r-106,107r126,144r47,0r0,124r-319,0r0,-124r47,0r-76,-81r-72,81r65,0r0,124r-256,0r0,-124r67,0r102,-115r-124,-136r-45,0r0,-125r324,0r0,125r-47,0r70,76r75,-76r-67,0","w":649},"y":{"d":"317,-217r65,-156r-46,0r0,-127r254,0r0,124r-48,0r-190,462v-35,85,-94,144,-215,141v-45,-1,-86,-19,-121,-50r75,-118v22,19,41,32,58,34v52,6,64,-53,78,-95r-195,-370r-41,0r0,-128r308,0r0,127r-47,0","w":580},"z":{"d":"155,-300r-130,0r0,-200r495,0r0,129r-238,240r105,0r0,-68r141,0r0,199r-503,0r0,-131r241,-240r-111,0r0,71","w":553},"\u00a0":{"w":250},"\u00ad":{"d":"47,-172r0,-133r290,0r0,133r-290,0"},"\u2013":{"d":"32,-172r0,-133r377,0r0,133r-377,0","w":447},"\u2014":{"d":"42,-172r0,-133r539,0r0,133r-539,0","w":631},"\u2022":{"d":"173,-214v-60,0,-113,-51,-113,-108v0,-57,50,-114,113,-114v63,0,115,57,115,114v0,64,-47,108,-115,108","w":348}}});
